%YAML:1.0
---
myHogDector: !!opencv-object-detector-hog
   winSize: [ 64, 128 ]
   blockSize: [ 16, 16 ]
   blockStride: [ 8, 8 ]
   cellSize: [ 8, 8 ]
   nbins: 9
   derivAperture: 1
   winSigma: 4.
   histogramNormType: 0
   L2HysThreshold: 2.0000000000000001e-01
   gammaCorrection: 1
   nlevels: 64
   signedGradient: 0
   SVMDetector: [ 1.59637805e-03, -1.75696891e-02, 1.64609798e-03,
       4.93088039e-03, -1.58572998e-02, 1.53442230e-02, -6.89038355e-03,
       4.60732821e-03, 2.45614983e-02, 6.02978515e-03, -1.60196032e-02,
       -1.23881306e-02, -3.14844847e-02, -1.16070164e-02, 1.65749490e-02,
       -2.99187191e-02, -1.02573065e-02, 1.49099771e-02, -9.79302730e-03,
       1.18476069e-02, 1.41240275e-02, 3.30425687e-02, -2.24973988e-02,
       1.53006297e-02, -1.38140507e-02, 7.27864215e-03, -6.64380658e-03,
       -1.26603781e-03, 4.41558426e-03, 2.56249886e-02, 1.88361593e-02,
       2.31275689e-02, 8.44352413e-03, -2.53204405e-02, 2.48472346e-03,
       1.13697974e-02, 1.67474914e-02, -5.72022237e-03, -1.52198607e-02,
       -4.24299277e-02, 1.46460943e-02, 2.06508934e-02, -3.04632634e-02,
       -9.97565966e-03, 1.91278905e-02, -7.39287771e-03, -2.85575390e-02,
       -1.31395096e-02, 3.03701172e-03, -8.55004473e-04, 1.43169779e-02,
       5.49815875e-03, -5.13668451e-03, 8.55395012e-03, 1.31438738e-02,
       1.26971807e-02, 1.38619719e-02, -4.37382329e-03, 1.69024058e-02,
       4.50452417e-03, -3.44016589e-02, -1.48773659e-02, 1.45335328e-02,
       1.28039699e-02, 9.26672947e-03, 3.25597497e-03, 2.96726953e-02,
       -3.92174460e-02, 5.65374596e-03, 3.04704215e-02, 2.08633463e-03,
       1.82863027e-02, -1.20482901e-02, -2.52389889e-02, -6.34977454e-03,
       -3.12087545e-03, -9.82059445e-03, -2.48694196e-02,
       -1.14471633e-02, 3.98549112e-03, 1.34735266e-02, 9.73705854e-03,
       -1.86479650e-03, 3.77823669e-03, -3.83107341e-03, 2.98020951e-02,
       2.16746014e-02, -1.26180518e-02, 1.94104742e-02, 1.10013215e-02,
       -9.19606537e-03, -3.15214536e-04, -6.79140259e-03,
       -3.90599918e-04, -2.62818318e-02, -1.95393860e-02, 1.52644515e-02,
       -5.98603673e-03, -1.09848017e-02, -1.64082795e-02, 9.24257096e-03,
       -1.09085692e-02, 9.05141607e-03, 1.86760128e-02, 2.38538403e-02,
       -5.87575370e-03, -6.15832070e-03, -3.26522850e-02, 1.13480864e-02,
       6.13861892e-04, 1.13832392e-03, -1.50154885e-02, 9.29152314e-03,
       3.13244201e-02, 1.63375656e-03, 2.91002970e-02, 2.57962309e-02,
       -9.20832716e-03, -2.47298144e-02, -2.47779060e-02,
       -4.01115045e-02, 2.79121865e-02, 1.68106779e-02, 2.94039352e-03,
       1.47333499e-02, 1.32006444e-02, 2.73053558e-03, 1.75921549e-03,
       -8.27471074e-03, -3.38158850e-03, -1.00520663e-02, 2.67820451e-02,
       -4.72690118e-03, 1.95739456e-02, 4.77929693e-03, -1.44502884e-02,
       -9.36574396e-03, -1.72641035e-02, -2.71220692e-02,
       -3.62612344e-02, -1.41318189e-02, -1.84023473e-02, 2.84566060e-02,
       6.02737116e-03, -1.30399466e-02, -9.12541337e-03, -1.24904234e-02,
       -1.64764784e-02, 1.34109243e-04, 2.15075146e-02, 1.54116414e-02,
       1.38154728e-02, -6.88376371e-03, -7.27496762e-03, -8.15822929e-03,
       8.22786894e-03, 1.61641780e-02, 1.25317192e-02, -5.15156193e-03,
       -7.55317044e-03, 5.52542415e-03, -4.93410975e-03, -1.72813926e-02,
       1.97407436e-02, 1.31546166e-02, 3.92819894e-03, -2.10698005e-02,
       2.75617931e-02, -9.78174387e-04, 1.43727604e-02, 2.77264829e-04,
       -1.85258351e-02, -5.70515217e-03, -9.79817472e-03, 2.60747951e-02,
       -7.80269457e-03, 2.56331824e-02, -4.93177865e-03, 1.20990817e-02,
       -6.60459464e-03, -1.92335807e-02, -1.58697867e-03,
       -5.46847517e-03, 9.87399928e-03, 2.32399069e-02, 5.74365351e-03,
       -2.54079252e-02, 2.47245567e-04, -1.93982273e-02, -5.42796170e-03,
       -8.35295860e-03, -1.38718542e-02, -1.58060458e-03, 1.66240484e-02,
       1.23305870e-02, -2.30204165e-02, -9.91246384e-03, 4.08465136e-03,
       9.11100593e-04, 7.98149593e-03, 6.73266361e-03, 2.58256979e-02,
       2.42106430e-02, 1.82917006e-02, -4.53319261e-03, 9.14708711e-03,
       -6.81175431e-03, 5.78189595e-03, 6.43579150e-03, -3.49794282e-03,
       1.62559841e-02, 1.27169583e-03, -4.33910778e-03, -9.28519107e-03,
       1.72498776e-03, -2.27428414e-02, -2.82777357e-03, -2.74010439e-04,
       -4.57669981e-03, 5.16153499e-03, 3.46559510e-02, 9.82168131e-03,
       -2.00537555e-02, -6.14611432e-03, 1.24057308e-02, -2.52315067e-02,
       -8.77887942e-03, 7.03414611e-04, 4.65999451e-03, -1.17972009e-02,
       -3.72193684e-03, -4.99047292e-03, 5.73535310e-03, -2.57551465e-02,
       -9.77949006e-04, 2.53702601e-04, -6.06719078e-03, 1.73616577e-02,
       7.63667002e-03, 8.98677297e-03, -5.94366528e-03, 1.36598870e-02,
       1.67364394e-03, -1.47533640e-02, -3.71478163e-02, -1.33125111e-02,
       -5.47044165e-03, -5.71502838e-03, 1.25772534e-02, -1.99538637e-02,
       -2.34906133e-02, -2.17744969e-02, -3.36392857e-02, 1.31373042e-02,
       1.46851279e-02, 2.09175535e-02, 2.13937592e-02, 1.07436087e-02,
       3.69966193e-03, 9.48052853e-04, -2.53719147e-02, -2.71952786e-02,
       1.05307559e-02, -2.07926314e-02, 1.01269083e-02, 1.08507965e-02,
       -9.25771985e-03, -2.67009698e-02, -1.01928702e-02,
       -3.24448980e-02, 9.06749570e-04, 5.21323491e-05, -1.07856421e-02,
       1.87703110e-02, 1.00176660e-02, 2.97934692e-02, -1.83781106e-02,
       9.77171212e-03, -6.16563577e-03, -4.07320826e-04, 2.34378874e-02,
       -1.99907995e-03, 4.56902981e-02, -7.49293854e-03, 6.35868590e-03,
       -1.34718139e-02, 1.25154192e-02, -4.64624818e-03, -1.54837593e-02,
       1.36575541e-02, -2.30250023e-02, 3.49421171e-03, 3.33419163e-03,
       -1.73582241e-03, -2.55606845e-02, -1.66753605e-02,
       -2.12792922e-02, -2.38860529e-02, -2.25537959e-02,
       -2.57379916e-02, 3.50079266e-03, 1.47127139e-03, 2.15846319e-02,
       -5.07202372e-03, -2.05149986e-02, -2.36429870e-02, 1.45160444e-02,
       3.54695097e-02, 2.23775338e-02, 5.10192998e-02, 8.32693279e-03,
       2.24355124e-02, -1.29791237e-02, 1.80984400e-02, 2.26487257e-02,
       -1.59305930e-02, -8.02284200e-03, -1.08159101e-02, 1.98111758e-02,
       -1.16120437e-02, 2.84176413e-02, -2.82812980e-03, -6.39224704e-03,
       8.01657268e-04, -3.87640367e-03, -1.48267467e-02, -5.98566141e-03,
       5.38759492e-03, -1.25159295e-02, 1.51903508e-02, -7.42730871e-03,
       -8.74514692e-03, -1.90573744e-02, -4.01781173e-03,
       -3.53980833e-03, -3.26557271e-02, -2.71157990e-03,
       -3.03215254e-02, -5.35943778e-03, 8.27772263e-03, -1.06360856e-02,
       -2.62615569e-02, 5.19077946e-03, -4.45940858e-03, -1.54074989e-02,
       2.60824803e-02, 2.94781066e-02, 2.72342209e-02, -1.49546983e-02,
       -4.71952418e-03, 1.11045456e-02, -8.62188637e-03, -1.43568097e-02,
       -3.22724059e-02, 5.08230785e-03, -1.76986381e-02, -6.39450410e-03,
       -8.47937912e-03, -1.75412521e-02, -2.06668619e-02, 1.30122742e-02,
       1.54604763e-02, -2.31174640e-02, -4.01233301e-05, -1.44521259e-02,
       4.23685042e-03, 2.52624527e-02, 1.60395969e-02, -2.08618939e-02,
       6.51741354e-03, 1.93968639e-02, -1.06029185e-02, 1.60903893e-02,
       6.70823548e-03, 2.84153357e-04, -1.17457910e-02, -1.30186332e-02,
       -2.91183945e-02, 1.14459894e-03, 2.65614986e-02, 3.26417037e-03,
       1.28512261e-02, -5.50119951e-03, 2.69733462e-03, 2.28475891e-02,
       7.88234826e-03, -1.92684531e-02, -7.86353275e-03, 1.36767281e-02,
       4.53735283e-03, 9.19226650e-03, 2.14021206e-02, -2.04841304e-03,
       1.27021354e-02, -1.42289866e-02, -2.49992199e-02, -2.03852472e-03,
       1.57828499e-02, 3.27907153e-03, 9.73757543e-03, -1.21892961e-02,
       1.73430778e-02, -1.77874435e-02, -1.60955556e-03, -8.62434506e-03,
       6.39448967e-03, 1.15977870e-02, 1.10006509e-02, 5.58221806e-03,
       -4.18114252e-02, 1.39191728e-02, -6.74072234e-03, 1.79902744e-02,
       1.33992219e-02, -1.02387099e-02, -4.05048626e-03, -1.66695863e-02,
       2.43824422e-02, -7.87568092e-03, 3.91331315e-03, -1.80381082e-03,
       -1.20958593e-02, -1.39896432e-03, 6.77147880e-03, -5.68365958e-03,
       -9.02329292e-03, 3.57843973e-02, -3.08932792e-02, 1.38732670e-02,
       2.82877521e-03, -4.22534160e-03, 4.10312368e-03, -1.14719812e-02,
       -4.26968094e-03, 6.08235830e-03, -1.91990263e-03, 2.35186238e-03,
       1.51034957e-02, -1.10252557e-04, -1.38084311e-02, -6.23968802e-03,
       1.54188147e-03, 9.67495423e-03, -7.28455326e-03, 1.37358587e-02,
       1.21687260e-02, 1.89146195e-02, 9.08086542e-03, -3.84979621e-02,
       -2.39474345e-02, -8.33656546e-03, -1.57803781e-02, 6.82006823e-04,
       9.14045051e-03, 7.07089482e-03, 1.41605288e-02, 5.56562329e-03,
       -5.89643000e-03, -6.34980435e-03, -1.50761958e-02,
       -7.03439256e-03, -2.44073551e-02, -1.66747579e-03, 1.28382044e-02,
       1.08535839e-02, -2.35271989e-03, -1.80115178e-02, -9.84844193e-03,
       -1.03394305e-02, -1.71888166e-03, -1.29906042e-02, 1.55667204e-03,
       2.96344645e-02, 2.56488211e-02, -1.15094269e-02, -2.13799421e-02,
       -2.03143619e-02, -7.52052618e-03, -1.23231756e-02,
       -1.28869982e-02, -1.09651536e-02, 1.85543997e-03, 1.73187368e-02,
       1.50049916e-02, -3.88418697e-03, -1.14254393e-02, -4.98125190e-03,
       -3.17954994e-03, -2.20527872e-02, 1.22470763e-02, 2.46063601e-02,
       5.44039672e-03, -1.99226011e-02, -3.36403847e-02, -3.32131656e-03,
       -7.68802175e-03, 6.89682274e-05, -1.42110419e-02, 5.40801743e-03,
       1.67862084e-02, -2.47023476e-04, 7.75267044e-03, -3.00721973e-02,
       -1.26029057e-02, -5.21438289e-03, 1.06151588e-02, 1.05419215e-02,
       -1.53268371e-02, 2.54722498e-02, 9.01046209e-03, 1.01106465e-02,
       2.17300262e-02, 2.35365282e-04, 8.33145622e-03, 1.96515266e-02,
       -2.28159319e-04, -5.28350379e-03, 1.93109028e-02, -2.84891110e-02,
       -2.48952601e-02, -2.75149988e-03, -4.22773184e-03,
       -1.41625223e-03, 1.45183876e-02, 4.24907281e-04, -2.40821820e-02,
       1.32646691e-02, 1.85457114e-02, 2.79937405e-02, 7.72002386e-03,
       -5.80968196e-03, 1.75502151e-02, 1.55954454e-02, -4.33654571e-03,
       -9.67125781e-03, -1.94108579e-02, -9.30141937e-03,
       -3.37948650e-02, -8.14980920e-03, 7.16833957e-03, -1.60696115e-02,
       9.72160697e-03, 2.21686834e-03, 9.68897436e-03, -3.49023901e-02,
       1.78699363e-02, 9.04189050e-03, 2.16380619e-02, -6.97748130e-03,
       1.12730032e-02, 2.90072188e-02, 6.68379292e-03, -1.32014444e-02,
       4.19435790e-03, 2.42179638e-04, -4.04567318e-03, 1.99539568e-02,
       2.13149153e-02, 2.63998663e-04, -1.66045036e-02, 6.23547472e-03,
       1.38253793e-02, -5.34790568e-03, 1.63372308e-02, -7.17053143e-03,
       -1.98352523e-02, -4.06898372e-03, 1.55036878e-02, 1.50956577e-02,
       -6.45281002e-03, -1.28076598e-02, -2.23640408e-02,
       -5.52462460e-03, -8.28330126e-03, -6.78185979e-03, 6.85801730e-03,
       4.23770258e-03, 1.80550441e-02, -4.28283587e-03, -1.05815451e-03,
       1.16002001e-02, 1.90877486e-02, -1.04707750e-02, 4.44150902e-03,
       1.70316845e-02, -1.53255872e-02, -2.13062530e-03, -1.52949700e-02,
       1.17502091e-02, -2.17257123e-02, 1.04004024e-02, 1.01209548e-03,
       -1.24326395e-02, -1.27664546e-03, 6.16186345e-03, 7.65440706e-03,
       -2.36355476e-02, 6.51070615e-03, 2.58427467e-02, 2.34501343e-02,
       3.79912276e-03, -6.69257861e-05, 5.20939892e-03, -6.85429014e-03,
       -1.09437956e-02, -2.76432149e-02, 2.31675375e-02, -1.33138727e-02,
       1.02366898e-02, -1.76204555e-02, -1.69477258e-02, -6.50182925e-03,
       8.98215876e-05, -1.33501866e-03, -7.34925596e-03, -1.23884082e-02,
       -8.28978419e-03, -1.46178441e-04, -1.26454025e-03,
       -1.25777470e-02, -5.44910971e-03, 3.96739179e-03, -1.15547404e-02,
       -2.62665388e-04, 3.39308148e-03, 5.24388347e-03, 2.77504828e-02,
       4.04098304e-03, -3.34494514e-03, 4.47202074e-05, -1.78807310e-03,
       -3.91931739e-03, -8.83700233e-03, 2.28397679e-04, -3.35199828e-03,
       -5.95526909e-03, -1.60530172e-02, -2.61085369e-02, 8.47225450e-03,
       2.19368027e-03, -1.76801216e-02, -2.00788602e-02, -5.86013682e-03,
       -1.83224976e-02, 1.78762078e-02, 1.14390170e-02, 5.97091811e-03,
       3.61192599e-02, -7.08301924e-03, -1.52021376e-02, -5.05113928e-03,
       -3.13343294e-03, 3.54453968e-03, 1.90615859e-02, 2.05583009e-03,
       1.04669733e-02, 9.76590067e-03, -1.29215689e-02, 1.41271262e-03,
       -2.04787552e-02, -3.30304541e-02, -2.04549786e-02, 1.28042721e-03,
       -7.02067045e-03, 1.04606049e-02, 2.66604591e-03, -7.45285209e-03,
       4.53225616e-03, 1.85274389e-02, 1.37786549e-02, 1.77399162e-02,
       5.96822146e-03, 6.23844890e-03, 2.11200560e-03, -2.08833255e-02,
       -5.96873043e-03, 5.49761578e-02, 6.39243796e-02, 1.73310451e-02,
       2.15299353e-02, -1.50292872e-05, 8.56677722e-03, -1.09997382e-02,
       -3.61546688e-02, -2.28186175e-02, 1.46783115e-02, -1.84611417e-02,
       -1.76653769e-02, -1.66845918e-02, 1.18888887e-02, -9.45574511e-03,
       -1.17830932e-03, -1.01342080e-02, -5.46971243e-03, 2.87658591e-02,
       -1.43530620e-02, 8.68063234e-03, -3.86534492e-03, -4.75673331e-03,
       -1.72195174e-02, -4.35995823e-03, 1.12553481e-02, 3.22369225e-02,
       8.92751589e-02, 5.59043288e-02, 8.22270568e-03, -3.09732277e-03,
       -2.25438140e-02, -2.45136004e-02, -4.73009795e-03, 7.90760200e-03,
       -3.72068444e-03, 3.74530777e-02, -1.17669776e-02, -3.30247656e-02,
       -5.43284882e-03, -4.58383821e-02, -3.48724127e-02,
       -2.02343725e-02, -5.73054794e-03, 2.65995674e-02, 4.11471687e-02,
       1.71866082e-02, 1.71019454e-02, 2.37401091e-02, 6.26751129e-03,
       -1.39594264e-02, -1.12860091e-03, 1.38604352e-02, 1.64864324e-02,
       3.49804573e-02, 3.10786441e-03, 8.35094787e-03, 1.15312729e-02,
       -1.62944999e-02, -1.79237965e-02, -5.02792606e-03, 2.34955782e-03,
       6.39122352e-03, 4.56983931e-02, 6.34559942e-03, -1.92983430e-02,
       7.75210839e-03, -2.35452838e-02, -4.06712852e-03, -4.80238721e-03,
       -1.05718626e-02, 5.02497097e-03, 2.01816261e-02, 2.29594647e-03,
       -3.07982434e-02, 1.42303398e-02, -2.71714069e-02, -2.04882436e-02,
       -1.73175298e-02, -1.86893977e-02, 1.73074435e-02, 1.45768076e-02,
       1.26783422e-03, -4.16296331e-04, 3.21395509e-03, -1.10145174e-02,
       -1.70222707e-02, -6.63853498e-05, 1.80333443e-02, 1.81908011e-02,
       -1.88690666e-02, 5.48543409e-04, -1.86586827e-02, 1.77025422e-02,
       7.35925185e-03, -3.57786268e-02, -1.13023147e-02, 1.71097387e-02,
       5.16895764e-03, 2.81599425e-02, -1.66488029e-02, -3.80985066e-02,
       7.86512531e-03, -2.24199872e-02, 6.15879428e-03, 1.13483751e-03,
       -7.30380649e-04, 4.27333172e-03, 3.18902917e-02, 2.50277435e-03,
       -3.54762860e-02, 2.03777254e-02, -2.64495760e-02, -5.50385984e-03,
       1.65283680e-02, 6.73995353e-03, 2.26979181e-02, -8.37667286e-03,
       -2.65502445e-02, -2.77707484e-02, -4.44216654e-03,
       -1.05688795e-02, -3.22720893e-02, -1.11630177e-02, 7.81972718e-04,
       1.74918864e-02, 2.19207518e-02, -3.62942629e-02, -1.06866639e-02,
       -7.87323620e-03, 7.58339325e-03, 1.17286458e-03, -1.93849031e-04,
       8.02765717e-04, 2.01975163e-02, 5.48026673e-02, 1.40282661e-02,
       -1.15175107e-02, 1.97065789e-02, -1.10688405e-02, 1.53121315e-02,
       2.23543402e-02, 1.82822254e-02, 2.11119223e-02, 6.34669736e-02,
       -9.82057862e-03, -7.73189182e-04, 1.07942624e-02, 7.07691116e-03,
       1.45573588e-02, -4.13432205e-03, 1.10420100e-02, 1.98725867e-03,
       1.13356328e-02, -1.58618707e-02, -9.41875484e-03, -7.14658946e-03,
       1.73518769e-02, -5.52079035e-03, 1.39593217e-03, -1.14401686e-03,
       -1.02890050e-02, -1.52854128e-02, -2.20276378e-02,
       -6.18897425e-03, 9.74450540e-03, 3.17007676e-02, -2.85891593e-02,
       -3.22684608e-02, -1.42369522e-02, 1.43750859e-02, 5.00040799e-02,
       -5.78215020e-03, 1.51840365e-03, 9.32800211e-03, 1.44768495e-03,
       5.57622267e-03, 1.36623532e-02, 1.81091316e-02, -7.51848146e-03,
       -2.44277101e-02, -2.84659863e-02, 3.98611976e-03, 1.26975533e-02,
       1.60485972e-02, -2.80111888e-03, -8.09578877e-03, 2.57912092e-03,
       -5.98045299e-03, -5.95868705e-03, -2.14791503e-02, 8.18219595e-03,
       4.72566066e-03, 1.14152553e-02, -3.30511369e-02, -3.00438125e-02,
       -4.79467865e-03, -2.07464583e-02, -1.19152498e-02,
       -3.53120528e-02, -1.84898097e-02, -2.01054215e-02,
       -6.44423859e-03, -1.45995198e-02, -2.58367937e-02,
       -3.60811986e-02, -3.90246487e-03, -1.10172853e-02,
       -9.89900250e-03, 1.72542185e-02, 2.87121311e-02, 3.14144008e-02,
       2.03422513e-02, 1.95486695e-02, 2.37178635e-02, -1.84148829e-02,
       -3.03449612e-02, -5.57142217e-03, 2.88841892e-02, 2.82583684e-02,
       1.06259333e-02, -1.63436141e-02, -1.67950634e-02, 7.02571822e-03,
       -1.25298733e-02, 1.22855678e-02, -5.66339772e-03, -4.57741041e-03,
       5.94878709e-03, 3.62922600e-03, -1.48243019e-02, -1.73321199e-02,
       -3.72304283e-02, -3.14260460e-02, -2.51428783e-02,
       -7.94926938e-03, 3.23585904e-04, 2.43671751e-03, -9.58187412e-03,
       -1.55216660e-02, -2.89240703e-02, -5.19312173e-02, 2.43507279e-03,
       -7.05615478e-03, 1.25142187e-02, 3.33670974e-02, 4.27839421e-02,
       2.26554759e-02, -8.45481921e-03, -1.78762246e-03, 1.57804657e-02,
       1.00348028e-03, -2.60522198e-02, 1.33603448e-02, 2.25199349e-02,
       1.70052927e-02, 5.72222518e-03, -1.20731648e-02, -1.72611307e-02,
       1.56316877e-04, -3.36134322e-02, -2.51641627e-02, -2.09166370e-02,
       8.07026774e-03, 3.25757079e-04, -7.06023676e-03, -1.63647719e-02,
       -2.54951026e-02, -3.26446407e-02, -1.85603537e-02,
       -1.00063542e-02, -5.39359311e-03, 3.73917632e-02, 1.11926328e-02,
       2.66274181e-03, -1.25751020e-02, -2.12667026e-02, -2.87737064e-02,
       -1.68725923e-02, -9.67824459e-03, 2.18062056e-03, 1.81784816e-02,
       2.03806479e-02, 2.29189452e-02, 2.20609386e-03, -2.42919046e-02,
       -9.52324457e-03, 1.22909201e-04, -2.00731307e-02, -1.35738468e-02,
       1.43842474e-02, 3.22188437e-02, 2.75653861e-02, 7.46252900e-03,
       -2.55812728e-03, -8.27573426e-03, -3.30400467e-02,
       -1.21779153e-02, -1.62288584e-02, 4.23789117e-03, 2.13646479e-02,
       1.43617881e-03, -5.27363457e-03, -3.27941426e-03, -3.08166631e-02,
       -2.26722099e-02, -3.11392918e-02, -4.39299196e-02,
       -1.78099182e-02, -4.02464159e-03, 1.06102705e-03, -1.00240195e-02,
       -5.15668932e-03, -1.66245531e-02, 1.37426413e-03, -7.72379432e-03,
       -2.61855870e-02, 4.29477729e-03, 4.97639030e-02, 9.91566572e-03,
       -1.19723808e-02, 2.15992285e-03, -1.88771654e-02, 1.02758873e-02,
       5.51208621e-03, -1.23649342e-02, 2.11593509e-02, 1.89853236e-02,
       3.36203701e-03, -3.43253301e-03, 6.68605929e-03, -7.33988220e-03,
       4.03699931e-03, -1.60216037e-02, -2.09139045e-02, -1.36095693e-03,
       4.82863467e-03, -3.01668588e-02, -3.17409076e-02, -3.41094062e-02,
       -8.94508557e-04, 1.05830627e-02, 1.99868949e-03, -1.44482609e-02,
       -1.54749723e-02, -1.74534833e-03, -1.57297458e-02,
       -1.97305195e-02, -4.25226279e-02, 4.78935940e-03, 1.39532769e-02,
       -4.44411812e-03, 1.06273144e-02, 1.31635889e-02, 1.94684844e-02,
       -1.40791736e-03, -5.70402062e-03, -1.30293015e-02, 8.26820638e-03,
       -2.14682426e-02, -5.57265989e-03, 1.91542460e-03, 5.93421049e-03,
       1.62590649e-02, 9.80182085e-03, 4.77996748e-03, -2.02633217e-02,
       -8.59098043e-04, 1.06104603e-02, 1.37211764e-02, -1.15816211e-02,
       -3.46637741e-02, -2.14510765e-02, 3.45854014e-02, 8.99996422e-03,
       -5.33071486e-03, 1.45280929e-02, 1.82294045e-02, -9.78836138e-03,
       -2.57887561e-02, -1.57406945e-02, -5.21378173e-03,
       -1.05467504e-02, -2.25782041e-02, -1.08500272e-02, 1.69775207e-02,
       -1.13311885e-02, -2.94939196e-03, -3.48851853e-03, 1.23767974e-02,
       1.21577131e-02, 2.59326324e-02, 8.10114201e-03, -3.22152674e-03,
       4.36578225e-03, -3.84175614e-03, -1.11904768e-02, -1.17559712e-02,
       1.31096654e-02, 1.88688045e-05, 1.87274907e-02, -1.62488148e-02,
       -1.23681445e-02, -3.21590831e-03, -6.01719134e-03,
       -2.19538622e-02, -8.40075780e-03, 3.44295637e-03, 2.89762896e-02,
       1.79473367e-02, -8.73330329e-03, -1.96752753e-02, 1.75079536e-02,
       1.56549662e-02, 6.41589984e-03, 1.49487536e-02, 8.68661515e-03,
       9.92102921e-03, -1.16909081e-02, -9.02075844e-04, 4.12191311e-03,
       2.07721163e-02, -2.07734737e-03, -3.02805416e-02, -2.02092491e-02,
       -1.49095932e-03, 1.37882773e-02, 3.63338776e-02, 6.04561018e-03,
       -5.01958327e-03, 2.61724163e-02, -2.23216438e-03, -1.07763745e-02,
       -5.91963588e-04, 4.65775048e-03, -9.72639583e-03, 8.92706867e-03,
       1.62526965e-02, -7.10639171e-03, 1.66085158e-02, -1.69241950e-02,
       -1.17006907e-02, -1.89231094e-02, 2.66223401e-03, 1.15401829e-02,
       -1.11762492e-04, -6.80429116e-03, -7.23245880e-03,
       -1.00419242e-02, 7.56092463e-03, 4.55364212e-03, -1.39502995e-02,
       -3.51242651e-03, 3.84621928e-03, 9.94226430e-03, -3.66054010e-03,
       -4.12876066e-03, 2.01967284e-02, -8.53048451e-03, -7.07549881e-03,
       2.49799546e-02, 2.53166240e-02, 1.87603123e-02, -4.79078852e-03,
       -2.66934512e-03, -2.18284428e-02, -1.88276134e-02,
       -6.55058958e-03, 6.14075512e-02, 7.80067146e-02, 3.29720303e-02,
       -9.42402333e-03, 8.61263927e-03, -1.76375974e-02, -1.49884345e-02,
       -2.69523449e-02, -3.33702005e-03, 7.75978575e-03, -1.03179784e-02,
       -1.95268318e-02, -1.61418691e-02, -2.09366418e-02,
       -3.60144787e-02, -2.91232355e-02, 1.19214051e-03, 3.99322854e-03,
       -6.99893339e-03, -3.62663120e-02, -2.21446510e-02,
       -1.48108723e-02, -2.32541095e-02, -9.75197740e-03,
       -1.84439588e-02, 1.90623179e-02, 2.56784111e-02, 6.34367615e-02,
       4.65281270e-02, 7.07279658e-03, -6.65702950e-03, -2.33969484e-02,
       -7.23600946e-03, -9.99463256e-03, -1.31608639e-02, 3.38868536e-02,
       -6.96013775e-03, -2.57251989e-02, -3.40332426e-02, 1.70924123e-02,
       -2.09587533e-02, 3.94585170e-02, 2.47877091e-03, 2.06218492e-02,
       -1.77892838e-02, 1.48501527e-02, 3.11624315e-02, 1.98833738e-02,
       -7.13638263e-03, -1.96151491e-02, -7.22063612e-03,
       -1.61046777e-02, -2.77128238e-02, -1.66615508e-02, 7.31649846e-02,
       9.35136825e-02, 3.55494134e-02, 1.73984356e-02, -3.28668095e-02,
       -8.90712626e-03, -4.21824045e-02, -5.48574626e-02, 2.80009513e-03,
       1.45973060e-02, 2.98696011e-02, 1.65899917e-02, 4.80002463e-02,
       1.17700745e-03, 3.99666727e-02, 1.48445060e-02, 1.04936427e-02,
       -4.15458418e-02, -7.19322450e-03, 1.19247474e-02, -9.95024573e-03,
       2.35825982e-02, -1.97283328e-02, 8.65229685e-03, -3.97805013e-02,
       -2.91005448e-02, 2.16684006e-02, 1.01703107e-01, 7.23198429e-02,
       2.69944388e-02, -1.54805547e-02, -1.66612323e-02, -1.05111822e-02,
       1.91156268e-02, 1.40932081e-02, -6.69799221e-04, 4.61559966e-02,
       1.35197944e-03, -3.07477321e-02, -1.22149317e-02, -1.75342876e-02,
       -1.33830430e-02, 1.37519408e-02, 9.67446622e-03, -1.17094452e-02,
       -6.74595358e-03, 1.40989840e-03, -3.60759627e-03, -2.14327369e-02,
       -1.07068531e-02, 1.62070505e-02, -7.16276374e-03, 2.89913220e-03,
       1.42361466e-02, -1.85217801e-02, -2.25346349e-02, -3.96512710e-02,
       -8.83746054e-03, -1.81487780e-02, -1.08093079e-02,
       -6.18923875e-03, 2.92941965e-02, -7.93057203e-04, 4.15181220e-02,
       2.15503387e-03, -1.20101059e-02, 8.46253999e-04, -4.87210462e-04,
       2.68050679e-03, 2.27519032e-02, -3.06393602e-03, 6.40742714e-03,
       3.95400673e-02, 3.75848846e-03, -6.47558831e-03, -3.90029367e-04,
       -1.27375666e-02, 4.44052927e-03, 1.68552343e-02, -2.24514212e-02,
       3.09418049e-03, -6.35630172e-03, -1.00649223e-02, -2.51437481e-02,
       2.53569568e-03, -2.05747392e-02, -1.97985433e-02, -4.09728568e-03,
       1.58186480e-02, 1.59551855e-02, -9.38356202e-03, -3.28089390e-03,
       -2.72080936e-02, 8.23703303e-04, -3.53985503e-02, -4.02613590e-03,
       6.13545906e-03, 2.84878630e-02, 1.06250905e-02, 5.13541773e-02,
       -1.21460948e-02, -1.17015280e-02, -1.08935020e-03,
       -4.07969020e-03, 1.71704590e-02, -4.92942473e-03, -5.92093822e-03,
       2.43176650e-02, 6.64834529e-02, 9.53500625e-03, 1.24751814e-02,
       2.06917524e-02, -4.44167759e-03, 1.29518574e-02, 1.78362522e-02,
       2.07490306e-02, 4.02545324e-03, 1.08768698e-03, -2.24021124e-03,
       -2.39157863e-02, 1.32918153e-02, -1.79175586e-02, -1.85182244e-02,
       -1.46127753e-02, 2.22975481e-02, 1.24946255e-02, 7.92138651e-03,
       1.35021727e-03, -2.36562062e-02, 1.25609487e-02, 7.84673076e-03,
       -1.27201127e-02, -3.38199213e-02, 5.31801302e-03, 2.54628081e-02,
       7.20131248e-02, 2.32411213e-02, 2.00557858e-02, 2.34814025e-02,
       4.06510476e-03, 2.74760444e-02, 5.66023774e-02, 2.06808913e-02,
       2.67401133e-02, 5.73000424e-02, 4.27551614e-03, -9.07912198e-03,
       -2.54818611e-03, -1.83215309e-02, 2.75046974e-02, 3.83398607e-02,
       7.81106157e-03, -1.99023467e-02, -1.36940116e-02, -1.84833203e-02,
       -5.45695191e-03, 2.81393677e-02, -2.51550297e-03, -1.69079297e-03,
       3.14721675e-03, -2.52162721e-02, -2.02661734e-02, -3.41823772e-02,
       -3.96252312e-02, -3.15646194e-02, 7.41190801e-04, -2.08625030e-02,
       1.34743173e-02, -2.41379556e-03, -2.65142173e-02, 4.11422476e-02,
       4.56591435e-02, 3.17612663e-03, -1.40007343e-02, -4.86565812e-04,
       -1.54200327e-02, 1.48202498e-02, 3.99910212e-02, 4.24320251e-02,
       2.24907175e-02, -3.56945652e-03, -8.30228440e-03, -1.11828186e-03,
       1.98703948e-02, 7.00339861e-03, 1.55626535e-02, 4.01495285e-02,
       4.73760255e-02, -1.39866611e-02, -1.67338438e-02, -1.02963299e-02,
       -2.75681093e-02, -1.99400764e-02, 7.26116216e-03, 3.44843641e-02,
       1.89540796e-02, 1.80883473e-03, -3.03598735e-02, -3.74786295e-02,
       -2.76941210e-02, -3.10600773e-02, -1.33680226e-02, 3.44836852e-03,
       6.41594268e-03, 7.40623334e-04, -1.18309036e-02, 1.86355803e-02,
       -1.24378875e-02, -1.49964914e-02, -1.33709414e-02, 1.25563797e-02,
       -7.82402567e-05, 1.04016894e-02, 5.24798743e-02, 6.02408871e-02,
       3.16926129e-02, -1.60535201e-02, -1.15419524e-02, 6.97695010e-04,
       4.44451235e-02, 1.30053516e-02, 1.41803697e-02, 5.66976294e-02,
       6.17451370e-02, -4.67922091e-02, -4.72203195e-02, -3.03177573e-02,
       -2.12942660e-02, -4.02237587e-02, -1.76707208e-02,
       -1.09133460e-02, 5.62045164e-03, -2.16634274e-02, 9.56395920e-03,
       2.25029094e-03, -1.90263335e-02, -2.74115838e-02, -1.66300330e-02,
       -1.66926589e-02, 7.74875889e-03, 4.04645652e-02, 2.76567731e-02,
       3.39667709e-03, -2.49135625e-02, -2.21391525e-02, -9.24116094e-03,
       5.60509088e-03, -2.11344883e-02, 2.59968569e-03, 3.61572318e-02,
       3.52136306e-02, 2.74870042e-02, -5.99879958e-03, -3.43304384e-03,
       4.71871113e-03, -1.90056618e-02, -1.42559484e-02, -1.16014446e-03,
       1.55135822e-02, 3.21176276e-02, -8.55781417e-03, 3.82179068e-03,
       -1.03283226e-02, -1.45395482e-02, -2.05111131e-02,
       -2.77510341e-02, 1.58316270e-02, 5.50980940e-02, 6.86366856e-03,
       -4.40940639e-04, 1.99340545e-02, 1.52786160e-02, 8.21077637e-03,
       -2.54691485e-02, -3.24027203e-02, 7.93574261e-04, 2.95651108e-02,
       1.55861897e-03, 1.30960587e-02, -2.68365983e-02, -2.37292089e-02,
       -1.25733353e-02, 3.90583160e-03, -1.55750541e-02, -1.76847223e-02,
       1.05047012e-02, 5.16182482e-02, 7.48748751e-03, -3.51017341e-02,
       -4.52209152e-02, -3.07250824e-02, -1.40946889e-02,
       -3.03450245e-02, -2.02041939e-02, 2.23004185e-02, 4.79785874e-02,
       2.11233962e-02, 8.33689794e-03, -1.07600586e-02, -2.62471046e-02,
       -4.36229259e-02, -6.63596168e-02, -2.88332570e-02, 3.40028554e-02,
       3.23187374e-02, 1.70274340e-02, 5.86225372e-03, -2.33435668e-02,
       -5.10017686e-02, -2.42062937e-02, -5.47964238e-02,
       -2.57910369e-03, 4.84809764e-02, 4.14208323e-02, -1.13675846e-02,
       -2.32356209e-02, -3.60826515e-02, -2.63147578e-02,
       -6.57406962e-03, -4.93660159e-02, -3.86060551e-02,
       -4.28110780e-03, -7.12164585e-03, -1.11708371e-02,
       -3.77996964e-03, 1.30617444e-03, -1.35119669e-02, -3.10521163e-02,
       -3.63284461e-02, -2.07106154e-02, -4.11104364e-03,
       -6.93816971e-03, 1.75128989e-02, 2.80760378e-02, 8.54437985e-03,
       -2.37288456e-02, -4.43151314e-03, -4.17281166e-02, 2.18734592e-02,
       3.58160324e-02, 1.66241284e-02, 3.17541175e-02, 5.71486093e-02,
       6.74327016e-02, 1.78773776e-02, 5.90045762e-04, 1.32279983e-03,
       4.35302407e-02, 5.85956573e-02, 4.13380824e-02, -2.35989075e-02,
       -1.29598379e-02, -1.51593157e-03, -3.18351872e-02,
       -3.55180390e-02, -2.91703716e-02, -2.31055636e-03, 2.02355767e-03,
       -2.49266205e-03, -4.16063815e-02, -3.69298756e-02,
       -1.90492421e-02, -2.63594836e-02, -2.07010806e-02,
       -2.95487139e-02, -4.78998479e-03, -1.95279066e-02,
       -5.53020695e-03, 5.36120720e-02, 5.27559631e-02, 6.61009699e-02,
       2.69591659e-02, 3.64221185e-02, 2.12881379e-02, 3.51644829e-02,
       4.49294820e-02, 4.88608256e-02, 2.47263610e-02, 1.98310167e-02,
       3.80073711e-02, 3.02796029e-02, 1.74258202e-02, 4.24287934e-03,
       2.32762285e-02, 1.39344670e-02, 1.57242641e-02, -1.81672201e-02,
       -2.27300506e-02, -1.98734039e-03, -3.12900078e-03, 1.42009528e-02,
       1.46255922e-02, 1.24378847e-02, 1.29810600e-02, 1.70136169e-02,
       -3.08196191e-02, -3.60024497e-02, -2.56650131e-02,
       -2.38473248e-02, -1.03457235e-02, -1.09196957e-02,
       -2.81090513e-02, -2.15775538e-02, -1.88244674e-02, 2.21115928e-02,
       1.01141436e-02, 4.27550673e-02, 6.22433349e-02, 3.17035243e-02,
       8.86195824e-02, 5.28186560e-02, 4.25898656e-02, 1.80524569e-02,
       -4.74501140e-02, -4.02216539e-02, -1.74980406e-02, 5.89350844e-03,
       2.08412483e-02, 8.21837597e-03, -2.15317141e-02, -4.81860600e-02,
       -5.19923605e-02, 2.14606877e-02, -1.13297710e-02, -2.66122110e-02,
       5.48249483e-03, 1.24193868e-02, 1.24587724e-02, -1.10456822e-02,
       1.02699362e-03, 1.95001457e-02, 7.48325419e-03, -2.45722625e-02,
       -2.06440464e-02, 4.92220465e-03, 6.16616942e-03, 6.58793980e-03,
       1.58135768e-03, -7.81977922e-03, 2.50495803e-02, -7.08433148e-03,
       4.08692798e-03, -1.92555655e-02, 9.16768145e-03, -2.84866150e-03,
       4.92792751e-04, -2.44781133e-02, 7.05852685e-03, 1.62486895e-03,
       7.42035965e-03, -2.96047255e-02, -2.28021182e-02, 1.43985907e-02,
       -2.31027771e-02, 4.54931799e-03, -3.45985754e-03, -1.35792224e-02,
       1.16164302e-02, -3.07884719e-02, -2.73916163e-02, 6.02071220e-03,
       9.54199303e-03, 3.88609581e-02, -4.55022510e-03, -3.98763977e-02,
       -4.25685942e-02, -4.72144037e-02, -2.14347113e-02, 6.41451553e-02,
       9.67293680e-02, 6.11957498e-02, 1.88426580e-02, 8.56186729e-03,
       -1.74471829e-02, -2.48605516e-02, -7.04988316e-02,
       -2.47219987e-02, -5.42042889e-02, -2.77712308e-02,
       -1.48091733e-03, 1.34664997e-02, -9.68115684e-03, -6.88999891e-03,
       -4.35462333e-02, -3.10098212e-02, -2.13426948e-02,
       -1.57634225e-02, 1.32350242e-02, 3.35395224e-02, 5.39132161e-03,
       3.48096304e-02, 4.65575047e-02, 2.35419385e-02, -3.36496159e-02,
       2.28662826e-02, 7.58449808e-02, 3.66352424e-02, 1.00652166e-02,
       2.47327541e-03, -3.40678319e-02, 5.42474817e-03, 7.19197607e-03,
       -1.63987707e-02, 3.06854304e-02, 5.27225016e-03, -4.52590473e-02,
       -4.30862457e-02, -1.26639614e-02, -2.83590537e-02, 4.72695827e-02,
       2.58726031e-02, 2.72138976e-02, -5.93946921e-03, 1.68854538e-02,
       -9.69133247e-03, -9.45132412e-03, 9.65699367e-03, 6.83661550e-03,
       3.79157364e-02, 2.90115140e-02, 5.34364535e-03, 2.86090057e-02,
       3.41159552e-02, -8.47587641e-03, -3.18666212e-02, -7.38501223e-03,
       -2.74421535e-02, 1.49659216e-02, 8.07316799e-04, 2.44270004e-02,
       -1.68190785e-02, 5.61342994e-03, 1.14702536e-02, 1.81581900e-02,
       3.46616842e-02, 4.30199411e-03, 3.88816930e-02, 9.55277029e-03,
       -2.06316565e-03, -4.99279313e-02, -2.87908614e-02,
       -1.73680149e-02, -7.02583604e-03, 2.27687228e-02, -4.16850118e-04,
       2.13563349e-02, -2.57823393e-02, -2.98716426e-02, -5.78748388e-03,
       5.65140322e-02, 4.51422185e-02, 2.72131450e-02, 1.00657414e-03,
       4.40895418e-03, 2.02805996e-02, -7.13337166e-03, -9.03024245e-03,
       -2.61373874e-02, 8.26342846e-04, -3.03650252e-03, 3.13417491e-04,
       -9.99164954e-03, -1.35401320e-02, 1.59840453e-02, -4.99857664e-02,
       -3.45289111e-02, -1.94214918e-02, -1.71199013e-02,
       -1.24189993e-02, 1.82132479e-02, -4.07659274e-04, 3.46637070e-02,
       3.49428132e-02, 1.79964043e-02, 2.73528299e-03, -1.89446639e-02,
       -7.84006715e-03, -1.68527812e-02, -6.85078371e-03,
       -2.83812042e-02, -1.21614905e-02, -9.35259741e-03,
       -1.02884672e-03, -1.06557980e-02, 2.08570994e-02, 3.74674909e-02,
       6.88437233e-03, 3.70482579e-02, 4.82474919e-03, 2.86555272e-02,
       2.73300391e-02, 1.04180248e-02, -5.38702030e-03, -1.80035736e-02,
       1.54765835e-02, 9.41760466e-03, 1.86547115e-02, -2.45634257e-03,
       -2.16071010e-02, -1.14806031e-03, -3.71162221e-03,
       -2.00689118e-02, -7.24993413e-03, 1.43397991e-02, 1.49569586e-02,
       2.28346251e-02, -1.74037851e-02, -4.88103507e-03, 8.33621062e-03,
       2.35374570e-02, 5.96057670e-03, -7.57096743e-04, -8.27066973e-03,
       6.46992866e-03, 3.77516169e-03, -8.28318065e-04, 7.56030844e-04,
       1.92844737e-02, 1.35872830e-02, 9.25727189e-04, -1.75762251e-02,
       2.60207430e-02, 2.45076213e-02, 2.35393420e-02, -1.12543406e-03,
       5.76839549e-03, 2.96743866e-02, 2.97012627e-02, 1.43001613e-03,
       -3.57943529e-04, -8.97345191e-04, 2.12719962e-02, -3.02074719e-02,
       -1.22404117e-02, 1.64894830e-03, 8.50511901e-03, 8.64773057e-03,
       -6.64398214e-03, -1.09450407e-02, -3.06688366e-03, 8.29486363e-03,
       7.10338401e-03, 8.61993339e-03, 1.52131002e-02, 1.08747724e-02,
       2.88914423e-02, 2.86438665e-03, 3.52164288e-03, 1.32004498e-02,
       2.02855915e-02, 1.69153605e-03, -2.92532006e-03, 3.41824107e-02,
       1.50087392e-02, 1.45335272e-02, 3.51834088e-03, -1.26199592e-02,
       -1.05625875e-02, 3.02993646e-03, -1.19653968e-02, -6.56702649e-03,
       1.19229984e-02, 1.29827913e-02, 3.16210231e-03, -1.15762996e-02,
       -1.20655345e-02, -2.57425802e-03, 4.67331102e-03, 1.29348598e-02,
       1.00086974e-02, 1.65373888e-02, 3.35246441e-03, -1.88696422e-02,
       -5.75415604e-03, -4.24638093e-02, -1.22669702e-02, 7.80343870e-03,
       1.86522827e-02, 2.22751163e-02, 2.15933528e-02, 1.55585492e-02,
       8.69448762e-03, -2.75709797e-02, -3.52668837e-02, -3.28959897e-02,
       -1.06776478e-02, 9.02834907e-03, 2.50746477e-02, 2.61719208e-02,
       3.93004082e-02, 1.42900152e-02, -2.34712772e-02, -3.31200883e-02,
       -1.26259048e-02, 1.25121232e-02, 3.49571817e-02, 2.49488484e-02,
       2.11821068e-02, 3.25116049e-03, -1.15571506e-02, -1.41005963e-02,
       -2.93277483e-02, -2.55155489e-02, 1.13439728e-02, 4.11093645e-02,
       1.15051726e-03, 2.94682127e-03, 9.13260132e-03, 7.36552756e-03,
       -5.82580862e-04, -3.46014388e-02, -2.48475429e-02,
       -5.61279012e-03, -2.11644750e-02, 8.09181202e-03, 2.58849729e-02,
       3.03167496e-02, 6.50652871e-03, -2.84527093e-02, 6.00645831e-03,
       1.18990019e-02, -7.01709185e-03, -6.30143797e-03, 6.30672509e-03,
       1.05633894e-02, 3.11379172e-02, 1.84250847e-02, -1.37998993e-02,
       -4.24330048e-02, -1.96976252e-02, 6.60215830e-03, 1.66389742e-04,
       1.15877828e-02, -1.02443853e-02, 1.82887889e-03, -1.99041376e-03,
       -2.94518750e-02, 4.52102581e-03, 5.00798831e-03, 1.13781951e-02,
       1.26624352e-03, -9.19566490e-04, -8.82667117e-03, 1.07177151e-02,
       -1.68955629e-03, 4.56621405e-03, 1.53420232e-02, 1.88128818e-02,
       -5.26890112e-03, -1.36660226e-02, -3.00709289e-02,
       -2.29646210e-02, -1.19983871e-02, 4.18126583e-03, 1.18836910e-02,
       2.23229267e-02, 3.65666412e-02, 9.55985207e-03, -2.72050370e-02,
       -2.33968738e-02, -3.59224640e-02, -1.52775226e-02, 3.47239375e-02,
       1.48701528e-02, 2.98552886e-02, 2.29988173e-02, -2.04903707e-02,
       -2.11014040e-02, -2.35097148e-02, -2.53780279e-02,
       -1.65321399e-02, -1.09613007e-02, 3.29896100e-02, 2.18352471e-02,
       7.31986063e-03, -2.86920350e-02, -4.22578752e-02, -2.71675158e-02,
       -4.58640978e-02, 9.80120711e-03, 4.11910191e-02, 2.23866384e-02,
       8.74975463e-04, 1.92491226e-02, 1.09374346e-02, -1.79324578e-03,
       -1.34578114e-02, -2.47744247e-02, -4.15687636e-03, 2.48568952e-02,
       -3.94327129e-04, 1.30887306e-03, 3.12368181e-02, 1.08933961e-02,
       -6.19821995e-03, 5.63258678e-03, -2.00957656e-02, -3.10092084e-02,
       8.45287275e-03, -1.69636332e-03, 4.25753370e-03, -6.95283292e-03,
       -3.41817271e-03, -2.43874900e-02, -3.38110439e-02,
       -2.56033745e-02, 2.19653398e-02, 5.21351919e-02, 1.93103850e-02,
       -3.46066360e-03, 2.25236099e-02, -1.72509789e-03, -4.91523258e-02,
       -2.15002540e-02, -3.18050422e-02, -2.85271788e-03, 4.81360033e-02,
       2.51509738e-03, 2.44156178e-02, 3.32381241e-02, -4.01493767e-03,
       -8.83528404e-03, -1.87988188e-02, -3.61158699e-02,
       -3.64823937e-02, 1.77990980e-02, -1.32209493e-03, 1.22468481e-02,
       2.22852621e-02, -1.15370387e-02, -1.22241005e-02, -3.69916484e-03,
       -2.28772499e-02, -2.26350203e-02, 2.96435487e-02, 1.25905517e-02,
       9.08703450e-03, 1.85106415e-02, -1.93726793e-02, -3.91976945e-02,
       -1.34404264e-02, -3.19895595e-02, -2.08428651e-02, 3.10571957e-02,
       1.17011061e-02, 2.00490858e-02, 3.48226205e-02, -6.05427427e-03,
       -2.18842700e-02, -2.03640922e-03, -5.00874827e-03,
       -3.30402330e-02, 1.15752146e-02, 1.89165201e-03, -1.57038309e-02,
       1.34360101e-02, 1.46139553e-02, -1.67819560e-02, -9.61627904e-03,
       -2.90157963e-02, -1.27485385e-02, 8.95480346e-03, -3.84296058e-03,
       2.45335121e-02, 4.12973613e-02, 2.63969526e-02, 8.01305287e-03,
       5.18792425e-04, -1.00311600e-02, 3.70708928e-02, 4.64191958e-02,
       2.82871965e-02, 9.31427290e-04, 1.72927510e-02, -9.41080693e-03,
       -2.33893208e-02, -9.77075659e-03, -2.02125721e-02,
       -2.70793252e-02, -1.79366209e-03, -2.28024386e-02, 4.18240130e-02,
       2.72800867e-02, -6.37702364e-03, 1.21965318e-03, -1.30412858e-02,
       -9.21761990e-03, 2.73253173e-02, 4.07240763e-02, 3.36668529e-02,
       3.73419449e-02, 2.14643329e-02, 6.07560668e-03, -1.11947011e-03,
       -7.73776032e-04, -1.05662085e-02, 2.18403041e-02, 2.67278608e-02,
       1.97509099e-02, 2.71105953e-02, 2.41527637e-03, 8.70081969e-03,
       4.40730108e-03, 3.51279764e-03, -1.02699334e-02, 1.53568182e-02,
       -7.06595602e-04, -1.10704952e-03, 4.97728810e-02, 9.33911011e-04,
       -5.55905141e-03, -1.38304848e-03, 1.11011509e-02, 1.28013156e-02,
       2.38889791e-02, 3.45384702e-02, 3.47708575e-02, 3.05580571e-02,
       -1.16736339e-02, 4.05043177e-03, 1.62206963e-03, 2.27548592e-02,
       -1.52454497e-02, 1.88291073e-02, 3.37209948e-03, 1.57118253e-02,
       3.35921496e-02, 2.05792226e-02, 2.39452329e-02, 6.17729798e-02,
       3.92734557e-02, 7.65347406e-02, 4.70655337e-02, 1.50840394e-02,
       -1.36664119e-02, -4.35729548e-02, -3.67373265e-02,
       -3.88563797e-02, -1.96015891e-02, 2.22465713e-02, -1.27390807e-03,
       -2.30757669e-02, -5.54323047e-02, -6.71957284e-02, 1.69510804e-02,
       1.54789314e-02, 1.26104392e-02, 5.00324667e-02, 2.56169308e-02,
       3.04188728e-02, 2.83786431e-02, 2.96170567e-03, -1.46185905e-02,
       -4.79313470e-02, -5.63481674e-02, -4.45177741e-02,
       -3.25276330e-02, 7.33250752e-03, -3.55512835e-03, -3.14979069e-02,
       -5.45461588e-02, -6.59934729e-02, -3.38164740e-03,
       -1.81455240e-02, -2.30812505e-02, -2.52702041e-04, 2.05943664e-03,
       1.82190854e-02, -1.53684271e-02, 6.90574432e-03, 1.90576836e-02,
       2.20484473e-02, -2.46128403e-02, -1.17040398e-02, 1.26196565e-02,
       -2.21038312e-02, -1.03556989e-02, -1.77001078e-02,
       -3.39488685e-02, 6.09124638e-03, 3.63539369e-03, -2.11815238e-02,
       -2.05334220e-02, -1.95815787e-03, 2.16801986e-02, 1.88752599e-02,
       9.86049231e-03, 1.07562337e-02, 2.82227844e-02, -3.89926136e-03,
       -2.93836612e-02, 1.95354200e-03, 2.36146804e-02, 2.40175929e-02,
       1.25604542e-02, 8.34059995e-03, -9.94931068e-03, 5.71881537e-04,
       1.70718729e-02, -2.56090797e-02, -9.33338888e-03, 7.81860144e-04,
       -7.02568609e-03, -4.44051716e-03, 5.86730568e-03, 9.85458586e-03,
       6.35997683e-04, 2.71068271e-02, -1.05959577e-02, -8.43949709e-03,
       -1.73116382e-03, -4.50233091e-03, 4.57886718e-02, 7.81647712e-02,
       8.15868527e-02, 1.32837687e-02, -3.73783242e-03, -2.94925645e-02,
       -1.59723051e-02, -5.14889648e-03, 1.06194345e-02, -1.71243921e-02,
       -4.40453878e-03, 1.05457252e-03, -1.41707193e-02, 1.74482670e-02,
       -1.28269074e-02, -7.70531641e-03, -2.77406871e-02,
       -2.94794627e-02, -3.97427892e-03, 4.03303327e-03, 2.22520884e-02,
       -1.33600347e-02, 6.13519503e-03, 9.82284918e-03, -2.44492833e-02,
       -2.89621744e-02, -5.68460207e-03, 2.74065621e-02, 4.63672057e-02,
       5.75829223e-02, 2.46532988e-02, 2.62952540e-02, 5.28113097e-02,
       3.23905237e-02, -3.61891417e-03, 3.53848306e-03, -5.40345255e-03,
       1.18425982e-02, 9.22460761e-03, 2.33921595e-02, 8.91973730e-03,
       -1.41047752e-02, -2.81521957e-02, -4.12047543e-02,
       -2.09680069e-02, -8.39561224e-03, -5.04833087e-03, 1.13288984e-02,
       -1.54508408e-02, -5.06118964e-03, -1.05568045e-03, 2.28254986e-03,
       -5.43666957e-03, -6.74425298e-03, -6.82468386e-03,
       -7.98023865e-03, -1.20886345e-03, -1.37848249e-02, 4.42240341e-03,
       3.66850235e-02, 3.80395837e-02, 7.54858460e-03, 5.54420985e-03,
       9.03889723e-03, 2.46458389e-02, 4.93516866e-03, -9.98072606e-03,
       -2.39958987e-02, 1.63140856e-02, -1.79989380e-03, -2.62237508e-02,
       -4.39120596e-03, -4.99708438e-03, 1.54971583e-02, -2.42817458e-02,
       -4.23981808e-02, -3.56202312e-02, -2.20884737e-02,
       -1.37423566e-02, -1.13859458e-03, 3.36868875e-02, 3.16690356e-02,
       3.34257707e-02, 2.62101018e-03, -4.13353741e-02, -3.67857814e-02,
       -3.02463248e-02, -3.28964368e-02, -5.20989299e-02, 8.16129055e-03,
       5.44844232e-02, 6.94315284e-02, 3.30017991e-02, -4.38646264e-02,
       -5.63741289e-03, 2.64304727e-02, 1.99251417e-02, 3.92305106e-03,
       -2.52055880e-02, -1.82209685e-02, -5.74415969e-03,
       -2.10529054e-03, -2.48938743e-02, -2.57486738e-02,
       -1.40811214e-02, -3.97049915e-03, -1.78427715e-03, 1.75154284e-02,
       -3.49203609e-02, -3.74326929e-02, -1.57151315e-02,
       -6.48233434e-03, 4.11006901e-03, 1.57708470e-02, -3.79463984e-03,
       -2.39968523e-02, -3.77769582e-02, 2.99378987e-02, 7.42688775e-02,
       6.71328902e-02, 8.44995398e-03, -7.01632863e-03, -4.60991031e-03,
       -6.87112240e-03, -2.50660814e-02, -2.96847261e-02,
       -5.28367274e-02, -2.68601030e-02, 2.16765516e-02, 8.08633771e-03,
       -4.11856063e-02, -1.64737515e-02, -1.72553007e-02,
       -1.38020357e-02, -1.26862964e-02, -2.34700032e-02,
       -1.19086355e-02, 6.09200075e-03, -1.73382126e-02, 2.13710628e-02,
       -1.49566121e-02, -1.96802057e-02, -1.64567456e-02,
       -7.17721926e-03, -2.27840934e-02, -3.82214645e-03,
       -2.09435523e-02, -2.28258711e-03, 2.47236975e-02, 3.38288248e-02,
       1.10763870e-02, -1.30548319e-02, -3.10270339e-02, -2.89705601e-02,
       8.27648211e-03, 3.31736580e-02, 1.50009003e-02, 3.48392129e-03,
       5.28153740e-02, 1.72353573e-02, 6.58272114e-03, -3.03375311e-02,
       -9.37899575e-03, 2.88471822e-02, 2.81285699e-02, -1.79366227e-02,
       -2.01847721e-02, -2.53010523e-02, -8.91483016e-03,
       -8.32968298e-03, -3.19297914e-03, -2.46839542e-02,
       -1.35513693e-02, -2.16743723e-02, -2.64105368e-02,
       -2.05707066e-02, -2.16587204e-02, 6.14012219e-03, 5.77488821e-03,
       -1.22828474e-02, -1.68567095e-02, -1.79383613e-03,
       -4.61634388e-03, -6.30782591e-03, 1.03768753e-02, 2.40204223e-02,
       2.12186277e-02, 1.70720145e-02, -1.26221944e-02, 1.64598587e-03,
       3.55386510e-02, 3.80924381e-02, 1.08060203e-02, 2.22252700e-02,
       1.29650356e-02, 1.01885414e-02, -9.78194829e-03, -2.33824868e-02,
       -6.29433244e-03, 3.33682150e-02, 4.86166105e-02, 3.20969522e-02,
       -4.49741334e-02, -2.18301341e-02, 2.62304675e-02, 2.07804739e-02,
       -3.97240830e-04, -2.54150480e-03, -1.10907033e-02,
       -1.70498975e-02, -1.95786413e-02, -5.90244122e-02,
       -3.62588130e-02, 7.00058462e-03, 1.04875183e-02, -1.33902794e-02,
       -3.01870387e-02, -3.51476297e-02, -2.28583869e-02,
       -1.60233397e-02, 1.28950244e-02, 3.21178846e-02, 4.43455540e-02,
       1.38738910e-02, -2.41066259e-03, 1.33032762e-02, 2.42078956e-02,
       5.28290942e-02, 2.71805003e-02, 1.70231890e-02, 3.14298691e-03,
       1.76505707e-02, 8.70266091e-03, 1.08457478e-02, 8.85263085e-03,
       1.73865072e-02, 4.16898727e-02, 4.49963026e-02, -4.88345660e-02,
       -1.30626652e-02, 1.79364122e-02, -1.74270780e-03, -1.51368463e-02,
       -2.95191314e-02, -3.10142320e-02, -1.35713033e-02,
       -3.24892551e-02, -3.26067209e-02, -2.58925427e-02,
       -6.57481665e-04, 3.83257074e-03, -1.72894988e-02, -3.39223221e-02,
       -2.26881690e-02, -3.70009840e-02, -3.61169763e-02, 4.51621786e-02,
       3.26323323e-02, 2.97998842e-02, 1.63086239e-04, 8.20659660e-03,
       1.56467855e-02, 1.32370256e-02, 4.33130562e-02, 4.42354120e-02,
       2.39092596e-02, 3.78119275e-02, 4.57142815e-02, 3.08511350e-02,
       2.00210401e-04, -6.71551982e-03, -1.27142379e-02, 1.24115758e-02,
       2.07219012e-02, -2.17589978e-02, -1.69617999e-02, -1.48774786e-02,
       -3.52551579e-03, -1.55398091e-02, -3.79660986e-02,
       -4.01449203e-02, -4.63602431e-02, -3.48351598e-02, 6.72556227e-03,
       1.19040180e-02, -1.36937359e-02, -1.49053326e-02, -1.53651489e-02,
       -4.79682125e-02, -1.97876282e-02, -7.77180912e-03,
       -3.26108607e-03, 3.29950042e-02, 2.95626223e-02, 2.05274280e-02,
       2.70940270e-02, 5.96904615e-03, 8.41419585e-03, -1.63605940e-02,
       -1.72352437e-02, 1.86889656e-02, 5.23458235e-02, 3.27374041e-02,
       1.17909452e-02, 4.28306963e-03, 2.39410121e-02, 1.07703414e-02,
       -1.88276526e-02, -4.85255732e-04, 3.30185331e-02, -9.25875269e-03,
       2.68297717e-02, 1.94329824e-02, 1.82045391e-03, -2.24682055e-02,
       -2.56414879e-02, 1.25186937e-02, 3.64160165e-02, -3.97874089e-03,
       9.52029414e-03, 2.39604665e-03, 2.78295856e-03, -1.77959595e-02,
       -2.52418332e-02, -3.19642611e-02, 9.29519255e-03, 5.07674143e-02,
       2.00397149e-02, -2.63214344e-03, 1.38901109e-02, -1.90612616e-03,
       -1.19265355e-02, 3.84748867e-03, -1.76875130e-03, -2.29319744e-02,
       -6.61212113e-03, 6.20437879e-03, 1.12505117e-02, -1.10922763e-02,
       -1.97075885e-02, -7.02967960e-03, -2.27380497e-03,
       -1.85614526e-02, -2.73059979e-02, -8.99664406e-03, 2.93083326e-03,
       1.46086039e-02, 1.89926904e-02, 2.76489602e-03, -1.31875584e-02,
       -3.90967801e-02, -1.94732659e-02, -8.50972533e-03, 2.37591565e-02,
       2.83848364e-02, 3.01971175e-02, 4.44821976e-02, 1.40956743e-02,
       -3.03094331e-02, -1.01372646e-02, -6.43395213e-03,
       -2.32127476e-02, 1.22608542e-02, 2.72537898e-02, 1.27844522e-02,
       -1.20671531e-02, -1.09369941e-02, -5.02372812e-03,
       -1.62864048e-02, -7.57657038e-03, -2.64183953e-02,
       -6.53713522e-03, 1.09863067e-02, 2.53619198e-02, -3.65890446e-03,
       -1.30687710e-02, 1.31407182e-03, 5.81990322e-03, -1.10644707e-02,
       -4.69491147e-02, -2.25095283e-02, 1.80160105e-02, 2.93020215e-02,
       4.28936072e-02, 3.51778162e-03, -2.74784081e-02, -1.72410477e-02,
       -9.52614751e-03, -8.78323428e-03, 1.90270804e-02, 2.08536796e-02,
       6.08715117e-02, 6.13176711e-02, 2.68504601e-02, 1.44763673e-02,
       7.56530929e-03, 1.43081788e-02, 2.57131830e-02, 5.47267795e-02,
       6.82969168e-02, -1.16219735e-02, -1.92080867e-02, -3.19938026e-02,
       -2.78073773e-02, -1.80310756e-02, -3.44817154e-02,
       -5.20965680e-02, -1.39258094e-02, -1.07641136e-02,
       -1.45840633e-03, -6.02427055e-04, -1.14090294e-02,
       -3.67483422e-02, -3.19202207e-02, -2.47743651e-02,
       -3.21221575e-02, -3.03744432e-02, -1.12603838e-03, 6.46143407e-02,
       3.32815610e-02, 4.36165519e-02, 3.89928371e-02, 3.24219763e-02,
       5.04920743e-02, 6.22597821e-02, 7.50914142e-02, 6.87736943e-02,
       1.82893183e-02, 1.36503996e-02, 2.48299353e-02, 3.55741456e-02,
       1.63380206e-02, 2.10768320e-02, 3.11985221e-02, 3.72987799e-02,
       1.10678962e-02, 4.51369351e-03, -1.03363646e-02, -1.61620770e-02,
       -1.66475307e-02, -3.54356803e-02, -2.97060721e-02,
       -1.79121159e-02, -2.07415652e-02, 3.17719067e-03, -2.71575227e-02,
       -3.65716778e-02, -3.35385278e-02, -2.47615390e-02,
       -4.92399819e-02, -5.86618297e-02, -2.84676626e-02,
       -2.94973738e-02, -7.50086503e-03, 3.06679979e-02, 3.71609330e-02,
       4.98973727e-02, 7.87548199e-02, 5.67838103e-02, 4.61828709e-02,
       3.42244543e-02, 2.81377397e-02, 2.67502945e-02, -1.80827845e-02,
       -2.33378857e-02, -1.38733594e-03, 1.12517290e-02, 4.69537862e-02,
       1.82579607e-02, -1.48466434e-02, -4.63761203e-02, -1.74942035e-02,
       9.88917053e-03, 1.08058099e-02, -3.57771030e-04, 1.15630468e-02,
       1.21438932e-02, -1.58781242e-02, -1.92614682e-02, -7.94769544e-03,
       4.11662925e-03, -1.07236635e-02, 1.12161199e-02, -9.39736085e-04,
       1.59717388e-02, 2.28453018e-02, 7.85963610e-03, -3.22455801e-02,
       -5.32082208e-02, -2.60016713e-02, 6.12423569e-03, 2.30635633e-04,
       -2.89750379e-02, -1.89758949e-02, -3.35605927e-02,
       -1.37917763e-02, -2.88241100e-03, 8.07105843e-03, 8.74075457e-04,
       -1.17251230e-02, -6.89455215e-03, 4.15563863e-03, 1.38477487e-02,
       -5.26327826e-03, -1.12252329e-02, -6.49869954e-03, 7.76986009e-04,
       -6.53520133e-03, 3.49268913e-02, 1.09303351e-02, -1.95787940e-02,
       -1.56292822e-02, -1.27608853e-03, 7.01302942e-03, -2.96769831e-02,
       4.69812797e-03, 1.16649102e-02, 1.49759110e-02, 9.42198280e-03,
       8.66224803e-03, 1.35110943e-02, 2.19977610e-02, 6.41538203e-03,
       -1.18610011e-02, 3.09273973e-03, -6.95164921e-03, -5.19190403e-03,
       8.62029381e-03, 5.47140185e-03, 1.47187570e-02, -6.15331298e-03,
       -1.63686145e-02, -5.23512997e-03, -5.21799549e-03,
       -2.33019851e-02, -5.61512634e-03, -5.78822661e-03,
       -7.76180299e-03, -8.59167799e-03, -3.33126858e-02,
       -1.01938117e-02, -2.57990602e-02, -5.60908066e-03,
       -3.28837633e-02, 3.36164907e-02, 1.62267238e-02, 1.90313999e-02,
       1.89632233e-02, -2.53128400e-03, -6.50307583e-03, -4.01836727e-03,
       1.39065727e-03, 1.05640544e-02, 1.44334836e-02, -3.26368217e-06,
       -6.46308158e-03, 1.28714452e-02, 8.18446744e-03, 2.06875689e-02,
       8.86969827e-03, 4.02900577e-03, 2.18658559e-02, 4.55598114e-03,
       -8.50341935e-03, -1.70576330e-02, -1.64945852e-02,
       -6.13255892e-03, -1.48559595e-03, -9.33734514e-03, 7.70670827e-03,
       -2.50981022e-02, 8.82189628e-03, 6.72675436e-03, 1.63305849e-02,
       1.99522451e-02, 6.67493837e-03, 1.08728781e-02, -2.36566998e-02,
       -8.11377726e-03, -9.03764460e-03, 4.22090013e-03, -1.03964226e-03,
       -2.07508467e-02, -1.78354428e-04, 4.50733900e-02, 2.01588199e-02,
       1.04152504e-02, -7.31628248e-03, -6.90840092e-03, 1.69442259e-02,
       3.73095386e-02, 1.22854123e-02, 1.14980945e-02, 1.23873623e-02,
       2.36985716e-03, -4.49517323e-03, -5.35648409e-03, 3.47994920e-03,
       -2.50111744e-02, -2.60555241e-02, -1.74092706e-02, 3.27329314e-03,
       1.86491776e-02, 3.12362239e-02, 1.16244273e-03, -1.52730495e-02,
       -3.19208801e-02, -1.52907930e-02, -2.77818777e-02,
       -2.78672818e-02, -2.20346749e-02, 1.49907963e-02, 4.96783741e-02,
       7.33423457e-02, 5.41828088e-02, -4.57584439e-03, -1.86638013e-02,
       -2.86098686e-03, -2.15341691e-02, -1.82903633e-02, 2.87547754e-03,
       -7.55893905e-03, -3.09461411e-02, -1.39971534e-02,
       -3.19772474e-02, -1.08130835e-02, -2.44832300e-02,
       -1.05274739e-02, -3.08913868e-02, -1.02020176e-02,
       -1.95784513e-02, -1.25874598e-02, -1.09295668e-02,
       -9.25814733e-03, -1.90828461e-02, -2.18481906e-02,
       -4.04963531e-02, -4.86598127e-02, -4.45536859e-02,
       -3.47003154e-03, 6.23417608e-02, 8.20149705e-02, 1.35692544e-02,
       -2.22023986e-02, -2.37095356e-02, -2.80719269e-02,
       -3.71478312e-02, -1.72340833e-02, -5.43443337e-02,
       -2.49292683e-02, 2.17967033e-02, 2.59676035e-02, -8.12488608e-03,
       -9.52837337e-03, 6.91314999e-05, -8.65027215e-03, -1.82213522e-02,
       -1.43856443e-02, 1.54305231e-02, 2.56610271e-02, -1.06270527e-02,
       -9.38516296e-03, -1.38944983e-02, -2.09298194e-03, 1.16738854e-02,
       1.62944831e-02, -1.79146118e-02, 1.42209465e-03, 2.07073856e-02,
       2.08198908e-03, -6.18430367e-03, -4.32476960e-03, -4.19970881e-03,
       -2.09575798e-02, -1.04174651e-02, -4.00980897e-02,
       -1.91206322e-03, 3.75505425e-02, 8.33157729e-03, 4.69411490e-03,
       7.08540343e-03, -1.07568549e-02, -1.91108417e-02, -6.72228169e-03,
       -3.49269696e-02, 7.54140504e-03, 8.77271965e-03, -2.02705227e-02,
       1.27593370e-03, -3.68560478e-03, 7.91884586e-03, 7.03733822e-04,
       -2.54086275e-02, -2.38001603e-03, 2.10938249e-02, 4.54348512e-02,
       2.75983624e-02, 2.88339728e-03, -9.21180472e-03, -2.92282260e-04,
       -4.63169441e-03, -1.91829577e-02, -2.46758275e-02,
       -5.16890874e-03, 1.62428413e-02, 1.67499222e-02, -1.03647797e-03,
       1.56085864e-02, 5.40740602e-03, 7.42331799e-03, -1.76199544e-02,
       -1.18824234e-02, -9.91258305e-03, 7.94450007e-03, -7.97733665e-03,
       -5.12989424e-03, 6.34411443e-03, -5.65660326e-03, -2.54181884e-02,
       -1.10683255e-02, -1.35694658e-02, 4.80148621e-04, 1.29811577e-02,
       4.40910179e-03, 3.11687812e-02, -2.95192003e-03, -3.76664032e-03,
       1.50171481e-02, -1.75761189e-02, -1.54022791e-03, -2.38790512e-02,
       2.74294568e-03, 3.07390913e-02, -4.33101365e-03, -6.29611872e-03,
       1.82281772e-04, -5.62827336e-03, -1.06213046e-02, -4.46704822e-03,
       -1.74840018e-02, -2.10740417e-03, -6.27848925e-03, 2.84614158e-03,
       3.09509821e-02, 1.58942714e-02, -1.52910370e-02, -1.24066812e-03,
       7.40274694e-03, 1.48132341e-02, 2.89842431e-02, 1.09396679e-02,
       1.75136589e-02, 6.06484665e-03, -1.15370182e-02, 8.41667410e-04,
       -1.79388840e-02, -1.50350695e-02, 1.85762160e-02, 3.38073671e-02,
       2.60223169e-02, -6.58059306e-03, 1.21799670e-02, 3.38414032e-03,
       -1.65939759e-02, -4.75914171e-03, -9.06257890e-03,
       -2.95036882e-02, -2.61326544e-02, -4.62126359e-03,
       -2.14174870e-04, 1.77520677e-03, -1.86991747e-02, -8.10036343e-03,
       -6.60626264e-03, -4.55986410e-02, -2.07928382e-02,
       -3.05944663e-02, 1.36197014e-02, 2.49227267e-02, 1.50692118e-02,
       -9.34219640e-03, 1.46526843e-03, -1.24982465e-02, 6.45108288e-03,
       1.23619456e-02, 3.24277803e-02, 2.74768230e-02, -1.64273172e-03,
       2.00391617e-02, 1.38534177e-02, 1.97145548e-02, -1.95862073e-02,
       4.04134300e-03, -6.11022301e-03, 5.99783845e-03, -1.27605377e-02,
       9.61503386e-03, -1.11312801e-02, -3.36752757e-02, 3.30341258e-03,
       -1.90636814e-02, -2.50140801e-02, -8.34537391e-03,
       -1.39098773e-02, 8.74180463e-04, 5.55886375e-03, -6.28495589e-03,
       -3.57353389e-02, 5.54503128e-03, -8.66769534e-03, 1.47940742e-03,
       -5.45268704e-04, -1.10076303e-02, 6.19238941e-03, 2.71144211e-02,
       4.06967103e-02, 2.02338099e-02, 4.38959561e-02, 3.18802185e-02,
       2.47521345e-02, 1.00238435e-02, 2.17697565e-02, 1.71259474e-02,
       1.11841615e-02, 2.13739695e-03, -2.84896456e-02, 5.88349858e-03,
       1.07030179e-02, 3.10711302e-02, -2.27578040e-02, -4.06481372e-03,
       -1.76597554e-02, -2.75823940e-03, -1.39185432e-02,
       -1.08991871e-02, 5.52524580e-03, 2.96854996e-03, 1.05202608e-02,
       -2.42828336e-02, -1.03858598e-02, 1.33359935e-02, -1.84266698e-02,
       -2.80744676e-02, -2.77387891e-02, 3.25649092e-03, -1.19751841e-02,
       1.32999644e-02, -2.38350909e-02, -4.42925990e-02, -1.77291315e-02,
       1.79258492e-02, 2.85007916e-02, -1.50254015e-02, 1.23659139e-02,
       4.97820675e-02, 3.91418934e-02, -1.13084924e-03, 6.05022023e-03,
       -4.97639040e-03, -2.94471392e-03, -8.18135682e-03,
       -2.09142305e-02, -5.35221491e-03, 1.15255211e-02, 1.49206808e-02,
       -5.57246478e-03, 7.70605961e-03, -1.96184330e-02, -3.92310694e-02,
       -2.42609568e-02, -1.41418362e-02, 4.43661958e-02, 1.81471575e-02,
       1.09136822e-02, -6.91194367e-03, -2.44817641e-02, -1.64122134e-02,
       -4.57936861e-02, -3.51145677e-02, -2.01998167e-02, 2.97252610e-02,
       1.79711878e-02, 1.56399619e-03, -4.67895856e-03, -2.34394390e-02,
       -3.05959433e-02, -2.57050060e-03, -1.14343809e-02, 3.09017859e-03,
       1.09740943e-02, 4.51229550e-02, 2.32270770e-02, -2.93058041e-03,
       2.15676427e-02, 9.81820049e-04, -9.96314688e-04, -3.21123078e-02,
       -1.20043308e-02, 9.04532429e-03, 4.61816825e-02, 8.87318328e-03,
       -8.89763702e-03, 5.27021801e-03, -1.11010647e-03, -3.66675965e-02,
       -1.26845893e-02, 5.56448894e-03, 2.53107324e-02, 2.01951973e-02,
       1.88159496e-02, -1.32353872e-03, -4.12219903e-03, -1.47618279e-02,
       -2.86322087e-02, -1.12313032e-02, -1.15503985e-02, 7.35003501e-03,
       1.19751096e-02, 1.81998871e-02, -5.85840549e-03, -1.11581879e-02,
       -1.57821160e-02, 4.13899822e-03, -1.70207415e-02, 3.93925468e-03,
       3.00449524e-02, 3.52542661e-02, 1.47845522e-02, -4.21011122e-03,
       1.39796594e-02, -2.10084696e-03, -2.76785400e-02, -4.17437265e-03,
       5.84369665e-03, 1.09092239e-02, 9.38420929e-03, 4.31269594e-02,
       2.33165529e-02, 1.28860306e-02, -4.06468799e-03, -2.32795067e-02,
       -2.64754165e-02, -7.81666581e-03, 2.41991710e-02, 1.69231426e-02,
       1.93436574e-02, -9.12125921e-04, -2.70078853e-02, -2.14056317e-02,
       -3.28248031e-02, -2.00271560e-03, -1.50465183e-02, 1.61777809e-02,
       -8.54617916e-03, 1.66610442e-02, 2.97494675e-03, -2.99393069e-02,
       -2.98064779e-02, -3.06276567e-02, -9.55365598e-03,
       -2.92856130e-03, 1.23498878e-02, 8.74555763e-03, 3.59201916e-02,
       3.14419605e-02, 3.33334174e-04, -9.23757534e-03, -1.34417731e-02,
       -9.14133433e-03, 1.52387870e-02, 3.70742306e-02, -2.76464177e-03,
       2.05243267e-02, 2.16273628e-02, 1.44573662e-03, 5.73911285e-03,
       -2.79110111e-02, -1.45865232e-02, -3.36232819e-02, 6.60619652e-03,
       -2.16973778e-02, -4.77929553e-03, 7.78093934e-03, -3.59215178e-02,
       -3.27455997e-02, -7.04452535e-03, -1.87031906e-02,
       -1.75036723e-03, 2.60861311e-02, 4.97141341e-03, -9.13320854e-03,
       1.40149714e-02, -2.60548778e-02, -1.53283309e-02, 4.61794157e-03,
       -1.83339778e-03, 1.67034809e-02, 1.40230507e-02, 9.24309064e-03,
       -9.99166258e-03, -4.69037471e-03, 8.92347936e-03, -4.27816575e-03,
       8.20847321e-03, 1.98593233e-02, 1.23925088e-02, 1.24516301e-02,
       -3.04791750e-03, 9.28175077e-03, -2.49493718e-02, -1.14739500e-02,
       -1.67373307e-02, 1.75423548e-02, -6.99081179e-03, 2.07374468e-02,
       1.37164248e-02, -1.08085515e-03, -2.09069028e-02, -3.40568309e-04,
       4.85636014e-03, 1.56319682e-02, 3.23538296e-02, -4.58782259e-03,
       2.88296212e-03, 1.14707919e-02, -3.08801942e-02, -8.71402305e-03,
       -7.48522114e-03, 2.24046074e-02, 2.20640190e-02, 3.03298999e-02,
       6.03199797e-03, -4.99207666e-03, -1.12192857e-03, 9.89007577e-03,
       1.78286042e-02, -3.03815324e-02, -4.61804867e-03, 1.72027349e-02,
       1.39013212e-02, 6.60055608e-04, 3.35305696e-04, 2.55596824e-02,
       4.86808829e-04, 2.24350719e-03, -1.56358276e-02, -1.50812673e-03,
       7.47333653e-03, 1.43611105e-02, 4.32370696e-03, -1.19500794e-02,
       3.42681967e-02, -2.73248404e-02, 2.48703659e-02, -9.40505508e-03,
       1.12196815e-03, 1.50542632e-02, -8.52466468e-03, -1.93959207e-03,
       -3.12042814e-02, 2.04549003e-02, -9.66536161e-03, 1.36910118e-02,
       -1.63308938e-03, -3.21937469e-03, -1.24921964e-03, 6.46196585e-03,
       -1.79452803e-02, -1.51002975e-02, -2.52722157e-03,
       -1.49320904e-03, -5.83517691e-03, 2.01522955e-03, 1.97751517e-03,
       -6.09231088e-03, 1.10369809e-02, -7.61887059e-03, -2.10488960e-02,
       -9.33182519e-03, -4.00339137e-04, -1.77749273e-04, 5.79948910e-03,
       2.62884365e-04, -5.45826787e-03, 9.50536632e-05, 6.26073731e-03,
       -3.14109884e-02, -8.57668929e-03, 1.34096406e-02, -1.23491799e-02,
       -5.84738748e-03, 5.40105393e-03, -6.43234421e-03, 2.09308732e-02,
       3.63229327e-02, -1.12405920e-03, 1.33588985e-02, -3.93632712e-04,
       4.55520768e-03, -4.91551636e-03, 2.47482602e-02, 9.20152292e-03,
       -3.78331658e-03, -4.47757402e-03, -3.07171233e-02,
       -4.75076464e-04, 1.29877487e-02, -7.38274865e-03, -1.07419416e-02,
       -6.01962255e-03, -1.69219468e-02, 1.07747857e-02, 2.89113000e-02,
       -5.27001452e-03, 1.31145706e-02, -3.26075703e-02, -1.35418782e-02,
       -2.80077942e-02, -2.08258349e-02, -6.46642083e-03, 2.29767431e-02,
       2.08309181e-02, -1.92332116e-03, 1.70058850e-02, 2.90396456e-02,
       -4.71271481e-03, -1.21759214e-02, 6.84217922e-03, 2.23002695e-02,
       2.89005274e-03, -1.10993041e-02, -8.32394231e-03, 1.86084993e-02,
       -2.18296107e-02, 2.79567065e-03, -2.59073395e-02, 9.98005830e-03,
       9.81234293e-03, -4.45613917e-03, 1.36020435e-02, -6.61938731e-03,
       -6.18099002e-03, -5.79853496e-03, -2.73723318e-03,
       -1.88110042e-02, 1.56409647e-02, 1.27132852e-02, 9.51143214e-04,
       -3.21114640e-04, -9.26646776e-03, -3.32762077e-02,
       -3.09741800e-03, -3.71228228e-03, -1.43899936e-02, 1.92908254e-02,
       -1.86991133e-03, -4.19095904e-03, -8.46747775e-03,
       -2.18295045e-02, 1.33202912e-03, -1.83095001e-02, 4.12302418e-03,
       -1.49612343e-02, 1.06613559e-03, 1.28192287e-02, 6.52110577e-03,
       -2.47438205e-03, 1.95239317e-02, -1.15200058e-02, 1.41481915e-02,
       1.52957216e-02, -1.99906398e-02, -2.32584570e-02, 1.55591322e-02,
       -3.93054867e-03, -7.74803339e-04, 1.15507394e-02, 4.74782195e-03,
       -2.53277086e-03, 3.94365285e-03, -1.58607252e-02, 1.03229117e-02,
       -3.40182451e-03, -8.11814703e-03, -1.18405661e-02, 6.31426182e-03,
       2.25684512e-02, -5.16727893e-03, 6.48907619e-04, -3.13711576e-02,
       -9.01978835e-03, -1.13315657e-02, 3.23989335e-03, -1.52305700e-02,
       4.72115679e-03, -2.41538961e-04, 9.74991766e-04, 2.31167898e-02,
       5.72967576e-04, -1.35260541e-02, -1.07709272e-02, 5.11931023e-03,
       -2.02717958e-03, -8.13195202e-03, 1.44927111e-02, 3.45943235e-02,
       2.62952074e-02, -8.63351952e-03, -2.03497466e-02, -2.89433938e-03,
       7.93276913e-03, 1.52738756e-02, 2.49731578e-02, 2.30740756e-02,
       -8.01535149e-04, 1.54098803e-02, 2.45389063e-03, 3.09056919e-02,
       1.13680614e-02, -5.75744407e-03, -1.61829535e-02, 1.04310969e-02,
       -7.33075140e-04, -4.96459939e-03, 6.11497927e-03, -2.36305199e-03,
       -1.20731816e-03, 4.42852592e-03, -2.02437602e-02, -1.75634876e-03,
       9.58267506e-03, 3.18508781e-02, 1.57803819e-02, 3.24776731e-02,
       -2.25557163e-02, -2.73157358e-02, -4.90183663e-03,
       -1.56746320e-02, -1.76169742e-02, 4.18175431e-03, -1.90963801e-02,
       3.69353825e-03, 1.68594404e-03, -3.72192003e-02, -2.02416759e-02,
       -1.49361202e-02, 8.70074611e-03, -2.76529440e-03, -4.11616638e-03,
       4.45663137e-03, -6.86738640e-04, 3.40103284e-02, 6.92302408e-03,
       1.71222445e-02, 1.98535882e-02, -8.84932652e-03, 1.27536175e-03,
       8.04014038e-03, -3.54642019e-04, 1.03816076e-03, 1.55380927e-02,
       6.10457454e-03, 2.02347133e-02, -8.67245626e-03, -1.29839284e-02,
       -1.17209433e-02, -7.58025702e-03, -1.71374679e-02, 1.40420618e-02,
       2.02775616e-02, -3.08970679e-02, -1.39540918e-02, -2.53868364e-02,
       -3.23790312e-02, 6.38181018e-03, -7.68206408e-03, 1.07117323e-02,
       1.02028986e-02, 3.46451183e-03, -2.61740275e-02, -7.16191716e-03,
       -2.63820197e-02, 8.18267837e-03, 1.07699344e-02, 4.55377827e-04,
       -1.50018400e-02, 1.38932886e-02, 1.62711274e-02, 2.98449490e-03,
       -2.69654091e-04, 2.87960749e-03, 2.70529860e-03, -1.16678989e-02,
       -1.00045381e-02, -1.70300007e-02, -1.15827639e-02,
       -2.90884590e-03, -8.55021458e-03, -1.73762124e-02,
       -1.16209232e-03, -7.17523787e-03, 7.19773164e-03, 2.36248923e-03,
       1.35339778e-02, 2.67176908e-02, 2.74331328e-02, -6.63350523e-03,
       4.63792821e-03, -1.11607760e-02, -1.10303508e-02, 1.83642143e-03,
       3.34240682e-03, -1.86324604e-02, 1.12911807e-02, 1.33182583e-02,
       -1.91056747e-02, -7.44696520e-03, -5.59439359e-04, 1.09265614e-02,
       -1.52970487e-02, -1.40722543e-02, 1.58777423e-02, 1.20405974e-02,
       1.96608901e-02, 1.29895955e-02, 8.75687785e-03, 8.93004518e-03,
       -7.35509535e-03, -1.14999199e-02, -2.61068810e-02, 5.28141903e-03,
       -5.11261681e-03, 3.09968125e-02, 1.64188985e-02, 2.67443731e-02,
       2.52517755e-03, 1.49759592e-03, 1.01493010e-02, 1.40626878e-02,
       -6.46536425e-03, 2.44624056e-02, 2.83670165e-02, -7.75323668e-03,
       1.09896995e-02, -1.53889100e-03, -1.33621898e-02, -8.55427701e-03,
       -5.22044487e-03, -2.43442487e-02, -4.21634060e-04, 2.43270285e-02,
       1.30374410e-05, 1.09353997e-02, -2.42652893e-02, 3.07783880e-03,
       9.51747596e-03, -2.66448408e-03, 3.73979704e-03, 2.70010270e-02,
       2.85982620e-02, 6.38343394e-03, 1.50718344e-02, 4.50408086e-03,
       1.18625229e-02, 1.13629373e-02, -1.30329905e-02, -1.47893315e-03,
       -6.67946087e-03, 2.29101516e-02, -1.83226878e-03, -7.36603234e-03,
       -9.66728549e-04, 2.17821430e-02, 6.53618760e-03, -1.58223603e-03,
       -2.52226321e-03, 2.15699319e-02, 2.36652512e-02, -1.65258491e-04,
       1.43868132e-02, -5.11532370e-03, 1.46370512e-02, 1.89450644e-02,
       -2.15724837e-02, 1.03315164e-03, -3.09219323e-02, 4.62395977e-03,
       -4.25957516e-03, 1.00965109e-02, 1.03056617e-02, 1.84770219e-03,
       -6.64168131e-03, -4.59793117e-03, 2.70998478e-02, 5.18421782e-03,
       6.27687993e-03, -1.89702690e-03, -4.66292212e-03, 7.44649395e-03,
       -9.21414606e-03, -1.48942613e-03, 5.49763301e-03, 1.13875307e-02,
       -9.55708139e-03, 6.42440096e-03, -5.67648653e-03, -1.04098665e-02,
       1.65326975e-03, 1.21836383e-02, 2.21474357e-02, -1.20609934e-02,
       1.07531892e-02, -7.35943345e-03, 2.33135256e-03, -2.03471491e-03,
       9.66912881e-03, 1.10565517e-02, -1.01475306e-02, 2.07540821e-02,
       -1.22041721e-02, -4.81970888e-03, -1.13191614e-02, 9.34273377e-03,
       -2.18753703e-02, -1.62862912e-02, -7.84106646e-03,
       -1.81399137e-02, -2.19352008e-03, 3.07771051e-03, -1.55383220e-03,
       7.14115566e-03, 1.40700508e-02, 3.71130207e-03, -1.18620722e-02,
       -5.56673575e-03, -1.49920927e-02, -2.57528294e-02,
       -1.51309622e-02, -4.87064663e-03, 8.95036384e-03, 3.10691376e-03,
       2.75190803e-03, -1.50577966e-02, -8.10617395e-03, 9.74812638e-03,
       1.44399060e-02, 2.27345643e-03, 1.03777123e-03, -2.69137649e-03,
       3.55083197e-02, -1.26903467e-02, -1.81945674e-02, 9.31868621e-04,
       -1.79927819e-03, -3.39387055e-03, 3.99066089e-03, 2.92980508e-03,
       1.35325594e-02, 1.23093361e-02, -6.10175030e-03, -1.34572359e-02,
       -1.27977198e-02, -2.68664155e-02, -2.80994494e-02,
       -5.78737212e-03, 8.09941906e-03, 6.40136888e-03, 2.87494529e-02,
       2.03048401e-02, -1.50412284e-02, -4.53767506e-03, -1.22026652e-02,
       4.59875999e-04, -1.23538903e-03, 8.47133715e-03, -3.84754613e-02,
       1.55861918e-02, 1.39074260e-02, -1.95572823e-02, -1.07417172e-02,
       -1.05257872e-02, -1.31600518e-02, -1.56967789e-02, 1.64618678e-02,
       2.57047154e-02, 1.87303443e-02, 1.69677590e-03, -9.04675201e-03,
       -1.28293056e-02, -2.10072771e-02, -1.29720354e-02, 2.25887774e-03,
       1.15339626e-02, -5.11765573e-03, 2.24119388e-02, 1.17249088e-02,
       3.89043521e-03, -1.72927547e-02, -5.94574260e-03, 5.59326960e-03,
       -9.38142080e-07, 1.33539345e-02, -2.71613076e-02, 1.11327339e-02,
       6.98551210e-03, -1.26669109e-02, -3.12247337e-03, 9.42997076e-03,
       2.51414930e-03, 3.72762070e-03, 1.92985181e-02, 9.40999202e-03,
       2.05934457e-02, 2.52415333e-02, -9.38037597e-03, 9.07699671e-03,
       -2.36560553e-02, 6.17336202e-03, 1.01868995e-02, -4.66245972e-03,
       -4.78251167e-02, 5.79477940e-03, 1.23950141e-02, 6.68489592e-05,
       -3.90489178e-04, -2.41162465e-03, 2.72668432e-02, -1.16669619e-02,
       -1.31629454e-02, -2.97582187e-02, 2.76921559e-02, -4.26061684e-03,
       -1.52324606e-02, 3.76931950e-03, 5.26322238e-03, -1.92525126e-02,
       -1.01295440e-02, -1.66331884e-02, -2.03057379e-02,
       -2.36110832e-03, -7.94338249e-03, -1.06923617e-02, 9.63880215e-03,
       -1.84445968e-03, -2.26014704e-02, -1.63728520e-02,
       -1.21586518e-02, -8.15333799e-03, 2.14805529e-02, -2.26244312e-02,
       7.94773921e-03, 6.23170659e-03, 1.20391855e-02, 2.08600685e-02,
       -1.38722621e-02, -1.76596660e-02, 8.49972479e-03, 1.37382085e-02,
       6.39595557e-03, -7.55351284e-05, 1.34800570e-02, -2.73021217e-03,
       -1.75040811e-02, -3.32103223e-02, 2.82822573e-03, 2.16044225e-02,
       3.53294984e-02, -1.14022037e-02, -1.11050634e-02, 4.41317726e-03,
       -1.02009761e+00 ]
